digraph Tree {
node [shape=box] ;
0 [label="X[2] <= 2.45\nentropy = 1.583\nsamples = 100\nvalue = [31, 35, 34]"] ;
1 [label="entropy = 0.0\nsamples = 31\nvalue = [31, 0, 0]"] ;
0 -> 1 [labeldistance=2.5, labelangle=45, headlabel="True"] ;
2 [label="X[3] <= 1.75\nentropy = 1.0\nsamples = 69\nvalue = [0, 35, 34]"] ;
0 -> 2 [labeldistance=2.5, labelangle=-45, headlabel="False"] ;
3 [label="X[2] <= 5.35\nentropy = 0.485\nsamples = 38\nvalue = [0, 34, 4]"] ;
2 -> 3 ;
4 [label="X[3] <= 1.45\nentropy = 0.31\nsamples = 36\nvalue = [0, 34, 2]"] ;
3 -> 4 ;
5 [label="entropy = 0.0\nsamples = 26\nvalue = [0, 26, 0]"] ;
4 -> 5 ;
6 [label="X[1] <= 2.6\nentropy = 0.722\nsamples = 10\nvalue = [0, 8, 2]"] ;
4 -> 6 ;
7 [label="X[0] <= 6.15\nentropy = 0.918\nsamples = 3\nvalue = [0, 1, 2]"] ;
6 -> 7 ;
8 [label="entropy = 0.0\nsamples = 2\nvalue = [0, 0, 2]"] ;
7 -> 8 ;
9 [label="entropy = 0.0\nsamples = 1\nvalue = [0, 1, 0]"] ;
7 -> 9 ;
10 [label="entropy = 0.0\nsamples = 7\nvalue = [0, 7, 0]"] ;
6 -> 10 ;
11 [label="entropy = 0.0\nsamples = 2\nvalue = [0, 0, 2]"] ;
3 -> 11 ;
12 [label="X[2] <= 4.85\nentropy = 0.206\nsamples = 31\nvalue = [0, 1, 30]"] ;
2 -> 12 ;
13 [label="X[0] <= 5.95\nentropy = 0.918\nsamples = 3\nvalue = [0, 1, 2]"] ;
12 -> 13 ;
14 [label="entropy = 0.0\nsamples = 1\nvalue = [0, 1, 0]"] ;
13 -> 14 ;
15 [label="entropy = 0.0\nsamples = 2\nvalue = [0, 0, 2]"] ;
13 -> 15 ;
16 [label="entropy = 0.0\nsamples = 28\nvalue = [0, 0, 28]"] ;
12 -> 16 ;
}